<?xml version="1.0"?>
<opencv_storage>
<cascade>
  <stageType>BOOST</stageType>
  <featureType>HAAR</featureType>
  <height>40</height>
  <width>80</width>
  <stageParams>
    <boostType>GAB</boostType>
    <minHitRate>9.9900001287460327e-01</minHitRate>
    <maxFalseAlarm>5.0000000000000000e-01</maxFalseAlarm>
    <weightTrimRate>9.4999999999999996e-01</weightTrimRate>
    <maxDepth>1</maxDepth>
    <maxWeakCount>100</maxWeakCount></stageParams>
  <featureParams>
    <maxCatCount>0</maxCatCount>
    <featSize>1</featSize>
    <mode>ALL</mode></featureParams>
  <stageNum>19</stageNum>
  <stages>
    <!-- stage 0 -->
    <_>
      <maxWeakCount>3</maxWeakCount>
      <stageThreshold>-1.1816089153289795e+00</stageThreshold>
      <weakClassifiers>
        <_>
          <internalNodes>
            0 -1 104 -1.1319396086037159e-02</internalNodes>
          <leafValues>
            4.7967478632926941e-01 -8.1180220842361450e-01</leafValues></_>
        <_>
          <internalNodes>
            0 -1 70 -2.9078891966491938e-03</internalNodes>
          <leafValues>
            4.7844278812408447e-01 -8.0472677946090698e-01</leafValues></_>
        <_>
          <internalNodes>
            0 -1 67 -4.3583790102275088e-05</internalNodes>
          <leafValues>
            4.7441086173057556e-01 -8.4824949502944946e-01</leafValues></_></weakClassifiers></_>
    <!-- stage 1 -->
    <_>
      <maxWeakCount>3</maxWeakCount>
      <stageThreshold>-1.0944854021072388e+00</stageThreshold>
      <weakClassifiers>
        <_>
          <internalNodes>
            0 -1 8 -2.5951430201530457e-01</internalNodes>
          <leafValues>
            2.6114648580551147e-01 -8.2799327373504639e-01</leafValues></_>
        <_>
          <internalNodes>
            0 -1 61 3.2162542993319221e-06</internalNodes>
          <leafValues>
            -6.0532706975936890e-01 4.8519897460937500e-01</leafValues></_>
        <_>
          <internalNodes>
            0 -1 55 -1.0194003116339445e-03</internalNodes>
          <leafValues>
            4.2086884379386902e-01 -7.5030487775802612e-01</leafValues></_></weakClassifiers></_>
    <!-- stage 2 -->
    <_>
      <maxWeakCount>5</maxWeakCount>
      <stageThreshold>-1.5277721881866455e+00</stageThreshold>
      <weakClassifiers>
        <_>
          <internalNodes>
            0 -1 108 8.4179984405636787e-03</internalNodes>
          <leafValues>
            -8.4014207124710083e-01 1.2299465388059616e-01</leafValues></_>
        <_>
          <internalNodes>
            0 -1 52 -2.2470243275165558e-03</internalNodes>
          <leafValues>
            3.0796116590499878e-01 -6.8697077035903931e-01</leafValues></_>
        <_>
          <internalNodes>
            0 -1 45 -6.5716658718883991e-03</internalNodes>
          <leafValues>
            4.0216618776321411e-01 -6.7050230503082275e-01</leafValues></_>
        <_>
          <internalNodes>
            0 -1 15 -4.8733089352026582e-04</internalNodes>
          <leafValues>
            3.6585137248039246e-01 -6.3845020532608032e-01</leafValues></_>
        <_>
          <internalNodes>
            0 -1 66 -3.3267397157032974e-06</internalNodes>
          <leafValues>
            3.6482012271881104e-01 -7.6867693662643433e-01</leafValues></_></weakClassifiers></_>
    <!-- stage 3 -->
    <_>
      <maxWeakCount>4</maxWeakCount>
      <stageThreshold>-1.1453498601913452e+00</stageThreshold>
      <weakClassifiers>
        <_>
          <internalNodes>
            0 -1 4 -2.4225765466690063e-01</internalNodes>
          <leafValues>
            2.3178808391094208e-01 -8.0968278646469116e-01</leafValues></_>
        <_>
          <internalNodes>
            0 -1 50 -1.9863249734044075e-02</internalNodes>
          <leafValues>
            3.1162193417549133e-01 -6.3607591390609741e-01</leafValues></_>
        <_>
          <internalNodes>
            0 -1 59 1.3678149844054133e-04</internalNodes>
          <leafValues>
            -8.6410570144653320e-01 2.6940390467643738e-01</leafValues></_>
        <_>
          <internalNodes>
            0 -1 65 4.4041735236532986e-06</internalNodes>
          <leafValues>
            -8.3422207832336426e-01 2.1681667864322662e-01</leafValues></_></weakClassifiers></_>
    <!-- stage 4 -->
    <_>
      <maxWeakCount>5</maxWeakCount>
      <stageThreshold>-1.5127762556076050e+00</stageThreshold>
      <weakClassifiers>
        <_>
          <internalNodes>
            0 -1 14 -8.8634058833122253e-02</internalNodes>
          <leafValues>
            5.2631579339504242e-02 -7.9274612665176392e-01</leafValues></_>
        <_>
          <internalNodes>
            0 -1 20 -2.2443465888500214e-02</internalNodes>
          <leafValues>
            2.2340011596679688e-01 -7.0096117258071899e-01</leafValues></_>
        <_>
          <internalNodes>
            0 -1 51 7.3240837082266808e-03</internalNodes>
          <leafValues>
            2.3403552174568176e-01 -8.6929345130920410e-01</leafValues></_>
        <_>
          <internalNodes>
            0 -1 37 -3.1261338153854012e-04</internalNodes>
          <leafValues>
            4.5259004831314087e-01 -4.8003220558166504e-01</leafValues></_>
        <_>
          <internalNodes>
            0 -1 28 -1.1153936793562025e-04</internalNodes>
          <leafValues>
            -9.2635518312454224e-01 2.2692768275737762e-01</leafValues></_></weakClassifiers></_>
    <!-- stage 5 -->
    <_>
      <maxWeakCount>6</maxWeakCount>
      <stageThreshold>-1.1280789375305176e+00</stageThreshold>
      <weakClassifiers>
        <_>
          <internalNodes>
            0 -1 72 -2.2005259990692139e-02</internalNodes>
          <leafValues>
            7.4468082189559937e-01 -6.8990039825439453e-01</leafValues></_>
        <_>
          <internalNodes>
            0 -1 105 2.8691012412309647e-02</internalNodes>
          <leafValues>
            -5.6793713569641113e-01 4.8732414841651917e-01</leafValues></_>
        <_>
          <internalNodes>
            0 -1 16 -7.1436045691370964e-03</internalNodes>
          <leafValues>
            5.2367115020751953e-01 -4.0275159478187561e-01</leafValues></_>
        <_>
          <internalNodes>
            0 -1 60 6.6621607402339578e-05</internalNodes>
          <leafValues>
            2.3555515706539154e-01 -8.5979467630386353e-01</leafValues></_>
        <_>
          <internalNodes>
            0 -1 43 6.9418046623468399e-03</internalNodes>
          <leafValues>
            1.6903312504291534e-01 -9.6930533647537231e-01</leafValues></_>
        <_>
          <internalNodes>
            0 -1 63 1.4812927111051977e-04</internalNodes>
          <leafValues>
            -5.1711088418960571e-01 2.9684901237487793e-01</leafValues></_></weakClassifiers></_>
    <!-- stage 6 -->
    <_>
      <maxWeakCount>7</maxWeakCount>
      <stageThreshold>-7.1791887283325195e-01</stageThreshold>
      <weakClassifiers>
        <_>
          <internalNodes>
            0 -1 86 1.3337893411517143e-02</internalNodes>
          <leafValues>
            -6.8316829204559326e-01 7.6744186878204346e-01</leafValues></_>
        <_>
          <internalNodes>
            0 -1 102 -6.0389889404177666e-03</internalNodes>
          <leafValues>
            4.2382931709289551e-01 -5.4833561182022095e-01</leafValues></_>
        <_>
          <internalNodes>
            0 -1 103 -4.1812178678810596e-03</internalNodes>
          <leafValues>
            5.3802138566970825e-01 -3.6272597312927246e-01</leafValues></_>
        <_>
          <internalNodes>
            0 -1 101 5.0541770178824663e-04</internalNodes>
          <leafValues>
            3.0605345964431763e-01 -5.8553838729858398e-01</leafValues></_>
        <_>
          <internalNodes>
            0 -1 25 -2.5287723168730736e-02</internalNodes>
          <leafValues>
            7.1072560548782349e-01 -2.6174613833427429e-01</leafValues></_>
        <_>
          <internalNodes>
            0 -1 41 -3.5982392728328705e-04</internalNodes>
          <leafValues>
            -9.8228257894515991e-01 2.4101819097995758e-01</leafValues></_>
        <_>
          <internalNodes>
            0 -1 0 5.1498554646968842e-02</internalNodes>
          <leafValues>
            -3.0976188182830811e-01 6.9174504280090332e-01</leafValues></_></weakClassifiers></_>
    <!-- stage 7 -->
    <_>
      <maxWeakCount>7</maxWeakCount>
      <stageThreshold>-1.2523474693298340e+00</stageThreshold>
      <weakClassifiers>
        <_>
          <internalNodes>
            0 -1 73 -1.8498511984944344e-02</internalNodes>
          <leafValues>
            6.1538463830947876e-01 -6.9054442644119263e-01</leafValues></_>
        <_>
          <internalNodes>
            0 -1 18 -9.9809444509446621e-04</internalNodes>
          <leafValues>
            1.9950851798057556e-01 -6.3177984952926636e-01</leafValues></_>
        <_>
          <internalNodes>
            0 -1 13 2.4307956919074059e-03</internalNodes>
          <leafValues>
            2.2599725425243378e-01 -6.4586341381072998e-01</leafValues></_>
        <_>
          <internalNodes>
            0 -1 80 3.1598512578057125e-05</internalNodes>
          <leafValues>
            -5.8369004726409912e-01 3.0547246336936951e-01</leafValues></_>
        <_>
          <internalNodes>
            0 -1 29 1.9369440851733088e-03</internalNodes>
          <leafValues>
            2.3650781810283661e-01 -6.7809629440307617e-01</leafValues></_>
        <_>
          <internalNodes>
            0 -1 99 7.6595239806920290e-04</internalNodes>
          <leafValues>
            1.2289054691791534e-01 -9.2427837848663330e-01</leafValues></_>
        <_>
          <internalNodes>
            0 -1 3 -3.2499325275421143e-01</internalNodes>
          <leafValues>
            -8.1232988834381104e-01 1.5158694982528687e-01</leafValues></_></weakClassifiers></_>
    <!-- stage 8 -->
    <_>
      <maxWeakCount>7</maxWeakCount>
      <stageThreshold>-1.1577262878417969e+00</stageThreshold>
      <weakClassifiers>
        <_>
          <internalNodes>
            0 -1 82 1.2207716703414917e-02</internalNodes>
          <leafValues>
            -6.6111111640930176e-01 8.6666667461395264e-01</leafValues></_>
        <_>
          <internalNodes>
            0 -1 42 -1.5417174436151981e-03</internalNodes>
          <leafValues>
            -9.3363004922866821e-01 7.3439061641693115e-02</leafValues></_>
        <_>
          <internalNodes>
            0 -1 21 -5.1535029342630878e-05</internalNodes>
          <leafValues>
            2.6905956864356995e-01 -5.8299535512924194e-01</leafValues></_>
        <_>
          <internalNodes>
            0 -1 40 1.0289846977684647e-04</internalNodes>
          <leafValues>
            1.9093103706836700e-01 -8.5563963651657104e-01</leafValues></_>
        <_>
          <internalNodes>
            0 -1 88 -8.8060958660207689e-05</internalNodes>
          <leafValues>
            3.0418935418128967e-01 -5.1486194133758545e-01</leafValues></_>
        <_>
          <internalNodes>
            0 -1 33 3.3853712375275791e-04</internalNodes>
          <leafValues>
            3.5098043084144592e-01 -4.7135561704635620e-01</leafValues></_>
        <_>
          <internalNodes>
            0 -1 57 9.1736845206469297e-04</internalNodes>
          <leafValues>
            1.8369214236736298e-01 -8.4881204366683960e-01</leafValues></_></weakClassifiers></_>
    <!-- stage 9 -->
    <_>
      <maxWeakCount>6</maxWeakCount>
      <stageThreshold>-1.2381273508071899e+00</stageThreshold>
      <weakClassifiers>
        <_>
          <internalNodes>
            0 -1 22 -1.4290578663349152e-02</internalNodes>
          <leafValues>
            7.4193549156188965e-01 -6.5785813331604004e-01</leafValues></_>
        <_>
          <internalNodes>
            0 -1 69 -3.7168716080486774e-03</internalNodes>
          <leafValues>
            -1. 1.2487974017858505e-02</leafValues></_>
        <_>
          <internalNodes>
            0 -1 81 2.4141250178217888e-03</internalNodes>
          <leafValues>
            -9.0088230371475220e-01 1.1758102476596832e-01</leafValues></_>
        <_>
          <internalNodes>
            0 -1 2 1.5377197414636612e-02</internalNodes>
          <leafValues>
            -3.1340229511260986e-01 4.2325538396835327e-01</leafValues></_>
        <_>
          <internalNodes>
            0 -1 48 -1.5557976439595222e-05</internalNodes>
          <leafValues>
            2.5185987353324890e-01 -6.8549287319183350e-01</leafValues></_>
        <_>
          <internalNodes>
            0 -1 10 -8.3655340858967975e-06</internalNodes>
          <leafValues>
            3.0555483698844910e-01 -4.4810068607330322e-01</leafValues></_></weakClassifiers></_>
    <!-- stage 10 -->
    <_>
      <maxWeakCount>7</maxWeakCount>
      <stageThreshold>-1.2811411619186401e+00</stageThreshold>
      <weakClassifiers>
        <_>
          <internalNodes>
            0 -1 58 1.0074350051581860e-02</internalNodes>
          <leafValues>
            -6.5745854377746582e-01 1.</leafValues></_>
        <_>
          <internalNodes>
            0 -1 23 -4.5459833927452564e-03</internalNodes>
          <leafValues>
            3.3227318525314331e-01 -4.3191179633140564e-01</leafValues></_>
        <_>
          <internalNodes>
            0 -1 62 -4.0829976205714047e-04</internalNodes>
          <leafValues>
            -8.9478647708892822e-01 1.6499722003936768e-01</leafValues></_>
        <_>
          <internalNodes>
            0 -1 78 -7.0491073529410642e-06</internalNodes>
          <leafValues>
            3.5663354396820068e-01 -4.3128338456153870e-01</leafValues></_>
        <_>
          <internalNodes>
            0 -1 19 1.2975525110960007e-02</internalNodes>
          <leafValues>
            -1.8121553957462311e-01 8.3663755655288696e-01</leafValues></_>
        <_>
          <internalNodes>
            0 -1 112 -7.5883464887738228e-04</internalNodes>
          <leafValues>
            3.5084831714630127e-01 -4.6042722463607788e-01</leafValues></_>
        <_>
          <internalNodes>
            0 -1 32 -4.2135692638112232e-05</internalNodes>
          <leafValues>
            -7.3690134286880493e-01 1.7674931883811951e-01</leafValues></_></weakClassifiers></_>
    <!-- stage 11 -->
    <_>
      <maxWeakCount>8</maxWeakCount>
      <stageThreshold>-1.3419952392578125e+00</stageThreshold>
      <weakClassifiers>
        <_>
          <internalNodes>
            0 -1 83 3.3708158880472183e-03</internalNodes>
          <leafValues>
            -6.6063976287841797e-01 8.0645161867141724e-01</leafValues></_>
        <_>
          <internalNodes>
            0 -1 98 8.6946471128612757e-04</internalNodes>
          <leafValues>
            -7.8217738866806030e-01 7.9072766005992889e-02</leafValues></_>
        <_>
          <internalNodes>
            0 -1 56 5.5152829736471176e-04</internalNodes>
          <leafValues>
            1.2780465185642242e-01 -9.2514932155609131e-01</leafValues></_>
        <_>
          <internalNodes>
            0 -1 46 -1.2030901852995157e-03</internalNodes>
          <leafValues>
            -7.2258573770523071e-01 1.6221743822097778e-01</leafValues></_>
        <_>
          <internalNodes>
            0 -1 95 8.6558726616203785e-04</internalNodes>
          <leafValues>
            2.5689280033111572e-01 -5.0089967250823975e-01</leafValues></_>
        <_>
          <internalNodes>
            0 -1 90 -1.1728092795237899e-03</internalNodes>
          <leafValues>
            3.9333918690681458e-01 -4.3472763895988464e-01</leafValues></_>
        <_>
          <internalNodes>
            0 -1 84 4.9506956711411476e-03</internalNodes>
          <leafValues>
            -2.3771454393863678e-01 7.9313927888870239e-01</leafValues></_>
        <_>
          <internalNodes>
            0 -1 92 -4.0824251482263207e-04</internalNodes>
          <leafValues>
            -7.5079190731048584e-01 2.2634924948215485e-01</leafValues></_></weakClassifiers></_>
    <!-- stage 12 -->
    <_>
      <maxWeakCount>6</maxWeakCount>
      <stageThreshold>-1.4625042676925659e+00</stageThreshold>
      <weakClassifiers>
        <_>
          <internalNodes>
            0 -1 5 -6.1789741739630699e-03</internalNodes>
          <leafValues>
            6.1538463830947876e-01 -6.9054442644119263e-01</leafValues></_>
        <_>
          <internalNodes>
            0 -1 74 7.7389087527990341e-04</internalNodes>
          <leafValues>
            -6.2584757804870605e-01 3.2924497127532959e-01</leafValues></_>
        <_>
          <internalNodes>
            0 -1 94 7.8526572906412184e-05</internalNodes>
          <leafValues>
            -5.4570716619491577e-01 3.1836235523223877e-01</leafValues></_>
        <_>
          <internalNodes>
            0 -1 107 3.7072422855999321e-05</internalNodes>
          <leafValues>
            -4.8890057206153870e-01 3.3393183350563049e-01</leafValues></_>
        <_>
          <internalNodes>
            0 -1 1 5.3262775763869286e-03</internalNodes>
          <leafValues>
            -2.9090648889541626e-01 5.6716859340667725e-01</leafValues></_>
        <_>
          <internalNodes>
            0 -1 96 -8.0904294736683369e-04</internalNodes>
          <leafValues>
            3.5656958818435669e-01 -4.2235875129699707e-01</leafValues></_></weakClassifiers></_>
    <!-- stage 13 -->
    <_>
      <maxWeakCount>4</maxWeakCount>
      <stageThreshold>-8.6687052249908447e-01</stageThreshold>
      <weakClassifiers>
        <_>
          <internalNodes>
            0 -1 31 -1.0814191773533821e-03</internalNodes>
          <leafValues>
            7.8571426868438721e-01 -6.5373963117599487e-01</leafValues></_>
        <_>
          <internalNodes>
            0 -1 24 -8.9085511863231659e-03</internalNodes>
          <leafValues>
            4.1783806681632996e-01 -4.1234597563743591e-01</leafValues></_>
        <_>
          <internalNodes>
            0 -1 35 -2.8710216283798218e-03</internalNodes>
          <leafValues>
            4.3715682625770569e-01 -3.6718741059303284e-01</leafValues></_>
        <_>
          <internalNodes>
            0 -1 9 4.4420454651117325e-02</internalNodes>
          <leafValues>
            -2.3794180154800415e-01 6.6483604907989502e-01</leafValues></_></weakClassifiers></_>
    <!-- stage 14 -->
    <_>
      <maxWeakCount>8</maxWeakCount>
      <stageThreshold>-1.4085589647293091e+00</stageThreshold>
      <weakClassifiers>
        <_>
          <internalNodes>
            0 -1 44 3.8819087203592062e-03</internalNodes>
          <leafValues>
            -6.8604654073715210e-01 3.5483869910240173e-01</leafValues></_>
        <_>
          <internalNodes>
            0 -1 64 -4.8331799916923046e-04</internalNodes>
          <leafValues>
            -5.4718452692031860e-01 2.6967996358871460e-01</leafValues></_>
        <_>
          <internalNodes>
            0 -1 75 -1.6517487820237875e-03</internalNodes>
          <leafValues>
            -6.9369757175445557e-01 1.7504100501537323e-01</leafValues></_>
        <_>
          <internalNodes>
            0 -1 106 -2.0074490457773209e-02</internalNodes>
          <leafValues>
            4.0178656578063965e-01 -3.5205119848251343e-01</leafValues></_>
        <_>
          <internalNodes>
            0 -1 109 -6.2180641107261181e-03</internalNodes>
          <leafValues>
            5.9795951843261719e-01 -2.4872331321239471e-01</leafValues></_>
        <_>
          <internalNodes>
            0 -1 7 -1.0444168001413345e-02</internalNodes>
          <leafValues>
            6.5643090009689331e-01 -2.1975690126419067e-01</leafValues></_>
        <_>
          <internalNodes>
            0 -1 68 -1.5671513392589986e-04</internalNodes>
          <leafValues>
            2.5986129045486450e-01 -5.9579581022262573e-01</leafValues></_>
        <_>
          <internalNodes>
            0 -1 34 -1.3309976202435791e-04</internalNodes>
          <leafValues>
            2.4909384548664093e-01 -6.1733508110046387e-01</leafValues></_></weakClassifiers></_>
    <!-- stage 15 -->
    <_>
      <maxWeakCount>7</maxWeakCount>
      <stageThreshold>-1.2725075483322144e+00</stageThreshold>
      <weakClassifiers>
        <_>
          <internalNodes>
            0 -1 39 9.5250718295574188e-03</internalNodes>
          <leafValues>
            -6.5013772249221802e-01 9.1666668653488159e-01</leafValues></_>
        <_>
          <internalNodes>
            0 -1 114 1.0498510673642159e-02</internalNodes>
          <leafValues>
            -4.0734311938285828e-01 4.1196113824844360e-01</leafValues></_>
        <_>
          <internalNodes>
            0 -1 87 1.0315136751160026e-04</internalNodes>
          <leafValues>
            1.8821161985397339e-01 -8.9618957042694092e-01</leafValues></_>
        <_>
          <internalNodes>
            0 -1 91 -6.9197394623188302e-06</internalNodes>
          <leafValues>
            3.5805025696754456e-01 -4.2001423239707947e-01</leafValues></_>
        <_>
          <internalNodes>
            0 -1 85 2.7635855076368898e-05</internalNodes>
          <leafValues>
            2.5746551156044006e-01 -5.3201460838317871e-01</leafValues></_>
        <_>
          <internalNodes>
            0 -1 77 -1.9421736942604184e-04</internalNodes>
          <leafValues>
            3.4522211551666260e-01 -4.3760767579078674e-01</leafValues></_>
        <_>
          <internalNodes>
            0 -1 93 6.7213759757578373e-04</internalNodes>
          <leafValues>
            2.0356836915016174e-01 -8.2327377796173096e-01</leafValues></_></weakClassifiers></_>
    <!-- stage 16 -->
    <_>
      <maxWeakCount>9</maxWeakCount>
      <stageThreshold>-1.6080803871154785e+00</stageThreshold>
      <weakClassifiers>
        <_>
          <internalNodes>
            0 -1 100 2.8903973288834095e-03</internalNodes>
          <leafValues>
            -6.8033945560455322e-01 7.2093021869659424e-01</leafValues></_>
        <_>
          <internalNodes>
            0 -1 79 -1.7439640942029655e-05</internalNodes>
          <leafValues>
            1.3681137561798096e-01 -6.9754868745803833e-01</leafValues></_>
        <_>
          <internalNodes>
            0 -1 38 -1.0535821274970658e-05</internalNodes>
          <leafValues>
            3.6289578676223755e-01 -3.9505493640899658e-01</leafValues></_>
        <_>
          <internalNodes>
            0 -1 17 -5.9884265065193176e-03</internalNodes>
          <leafValues>
            5.1856261491775513e-01 -3.2048258185386658e-01</leafValues></_>
        <_>
          <internalNodes>
            0 -1 36 4.1387681849300861e-03</internalNodes>
          <leafValues>
            2.4528668820858002e-01 -8.1246161460876465e-01</leafValues></_>
        <_>
          <internalNodes>
            0 -1 54 -6.5315831452608109e-03</internalNodes>
          <leafValues>
            5.8805769681930542e-01 -3.0734628438949585e-01</leafValues></_>
        <_>
          <internalNodes>
            0 -1 53 -1.3177827931940556e-03</internalNodes>
          <leafValues>
            5.1965796947479248e-01 -3.1593096256256104e-01</leafValues></_>
        <_>
          <internalNodes>
            0 -1 30 1.3545373221859336e-03</internalNodes>
          <leafValues>
            3.3827108144760132e-01 -5.6892389059066772e-01</leafValues></_>
        <_>
          <internalNodes>
            0 -1 47 -6.5438123419880867e-04</internalNodes>
          <leafValues>
            6.4505523443222046e-01 -3.0929529666900635e-01</leafValues></_></weakClassifiers></_>
    <!-- stage 17 -->
    <_>
      <maxWeakCount>7</maxWeakCount>
      <stageThreshold>-1.1127612590789795e+00</stageThreshold>
      <weakClassifiers>
        <_>
          <internalNodes>
            0 -1 26 -7.7361436560750008e-03</internalNodes>
          <leafValues>
            1. -6.9971668720245361e-01</leafValues></_>
        <_>
          <internalNodes>
            0 -1 11 2.0243629114702344e-04</internalNodes>
          <leafValues>
            -5.8922386169433594e-01 2.2429326176643372e-01</leafValues></_>
        <_>
          <internalNodes>
            0 -1 97 1.0138366371393204e-02</internalNodes>
          <leafValues>
            -2.3704092204570770e-01 6.6998070478439331e-01</leafValues></_>
        <_>
          <internalNodes>
            0 -1 49 7.8648235648870468e-03</internalNodes>
          <leafValues>
            2.4645873904228210e-01 -8.7183493375778198e-01</leafValues></_>
        <_>
          <internalNodes>
            0 -1 71 -1.1688640806823969e-03</internalNodes>
          <leafValues>
            -5.1736479997634888e-01 3.9576157927513123e-01</leafValues></_>
        <_>
          <internalNodes>
            0 -1 76 4.2630294337868690e-03</internalNodes>
          <leafValues>
            -2.1863240003585815e-01 9.2012554407119751e-01</leafValues></_>
        <_>
          <internalNodes>
            0 -1 6 -1.9102519145235419e-03</internalNodes>
          <leafValues>
            -7.0225542783737183e-01 2.9440888762474060e-01</leafValues></_></weakClassifiers></_>
    <!-- stage 18 -->
    <_>
      <maxWeakCount>6</maxWeakCount>
      <stageThreshold>-1.4017570018768311e+00</stageThreshold>
      <weakClassifiers>
        <_>
          <internalNodes>
            0 -1 110 3.9086132310330868e-03</internalNodes>
          <leafValues>
            -7.1919769048690796e-01 1.</leafValues></_>
        <_>
          <internalNodes>
            0 -1 27 2.0257409196346998e-03</internalNodes>
          <leafValues>
            3.0945616960525513e-01 -7.0857840776443481e-01</leafValues></_>
        <_>
          <internalNodes>
            0 -1 89 1.4608257333748043e-04</internalNodes>
          <leafValues>
            -6.1565154790878296e-01 4.7489526867866516e-01</leafValues></_>
        <_>
          <internalNodes>
            0 -1 12 -5.0624730647541583e-05</internalNodes>
          <leafValues>
            -5.4125535488128662e-01 5.1197648048400879e-01</leafValues></_>
        <_>
          <internalNodes>
            0 -1 111 -2.0376446627778932e-05</internalNodes>
          <leafValues>
            -5.5603748559951782e-01 6.6550880670547485e-01</leafValues></_>
        <_>
          <internalNodes>
            0 -1 113 8.9676730567589402e-05</internalNodes>
          <leafValues>
            -3.6961787939071655e-01 8.7148529291152954e-01</leafValues></_></weakClassifiers></_></stages>
  <features>
    <_>
      <rects>
        <_>
          3 3 26 23 -1.</_>
        <_>
          16 3 13 23 2.</_></rects>
      <tilted>0</tilted></_>
    <_>
      <rects>
        <_>
          4 19 28 3 -1.</_>
        <_>
          11 19 14 3 2.</_></rects>
      <tilted>0</tilted></_>
    <_>
      <rects>
        <_>
          6 4 18 21 -1.</_>
        <_>
          15 4 9 21 2.</_></rects>
      <tilted>0</tilted></_>
    <_>
      <rects>
        <_>
          8 0 72 40 -1.</_>
        <_>
          8 20 72 20 2.</_></rects>
      <tilted>0</tilted></_>
    <_>
      <rects>
        <_>
          8 20 66 18 -1.</_>
        <_>
          30 26 22 6 9.</_></rects>
      <tilted>0</tilted></_>
    <_>
      <rects>
        <_>
          9 19 28 2 -1.</_>
        <_>
          16 19 14 2 2.</_></rects>
      <tilted>0</tilted></_>
    <_>
      <rects>
        <_>
          10 24 43 3 -1.</_>
        <_>
          10 25 43 1 3.</_></rects>
      <tilted>0</tilted></_>
    <_>
      <rects>
        <_>
          12 12 21 24 -1.</_>
        <_>
          19 12 7 24 3.</_></rects>
      <tilted>0</tilted></_>
    <_>
      <rects>
        <_>
          12 18 66 21 -1.</_>
        <_>
          34 25 22 7 9.</_></rects>
      <tilted>0</tilted></_>
    <_>
      <rects>
        <_>
          15 24 36 16 -1.</_>
        <_>
          15 24 18 8 2.</_>
        <_>
          33 32 18 8 2.</_></rects>
      <tilted>0</tilted></_>
    <_>
      <rects>
        <_>
          17 27 2 7 -1.</_>
        <_>
          18 27 1 7 2.</_></rects>
      <tilted>0</tilted></_>
    <_>
      <rects>
        <_>
          19 26 8 6 -1.</_>
        <_>
          19 26 4 3 2.</_>
        <_>
          23 29 4 3 2.</_></rects>
      <tilted>0</tilted></_>
    <_>
      <rects>
        <_>
          19 37 4 3 -1.</_>
        <_>
          19 38 4 1 3.</_></rects>
      <tilted>0</tilted></_>
    <_>
      <rects>
        <_>
          20 4 18 28 -1.</_>
        <_>
          26 4 6 28 3.</_></rects>
      <tilted>0</tilted></_>
    <_>
      <rects>
        <_>
          20 8 40 32 -1.</_>
        <_>
          20 16 40 16 2.</_></rects>
      <tilted>0</tilted></_>
    <_>
      <rects>
        <_>
          21 8 16 23 -1.</_>
        <_>
          25 8 8 23 2.</_></rects>
      <tilted>0</tilted></_>
    <_>
      <rects>
        <_>
          21 14 9 18 -1.</_>
        <_>
          21 20 9 6 3.</_></rects>
      <tilted>0</tilted></_>
    <_>
      <rects>
        <_>
          21 18 12 9 -1.</_>
        <_>
          25 21 4 3 9.</_></rects>
      <tilted>0</tilted></_>
    <_>
      <rects>
        <_>
          21 18 33 1 -1.</_>
        <_>
          32 18 11 1 3.</_></rects>
      <tilted>0</tilted></_>
    <_>
      <rects>
        <_>
          21 23 4 12 -1.</_>
        <_>
          21 23 4 6 2.</_></rects>
      <tilted>1</tilted></_>
    <_>
      <rects>
        <_>
          22 25 51 9 -1.</_>
        <_>
          39 25 17 9 3.</_></rects>
      <tilted>0</tilted></_>
    <_>
      <rects>
        <_>
          23 12 23 2 -1.</_>
        <_>
          23 13 23 1 2.</_></rects>
      <tilted>0</tilted></_>
    <_>
      <rects>
        <_>
          24 17 15 3 -1.</_>
        <_>
          29 18 5 1 9.</_></rects>
      <tilted>0</tilted></_>
    <_>
      <rects>
        <_>
          25 6 15 7 -1.</_>
        <_>
          30 11 5 7 3.</_></rects>
      <tilted>1</tilted></_>
    <_>
      <rects>
        <_>
          25 25 26 10 -1.</_>
        <_>
          25 25 13 5 2.</_>
        <_>
          38 30 13 5 2.</_></rects>
      <tilted>0</tilted></_>
    <_>
      <rects>
        <_>
          27 13 12 12 -1.</_>
        <_>
          23 17 12 4 3.</_></rects>
      <tilted>1</tilted></_>
    <_>
      <rects>
        <_>
          27 23 7 9 -1.</_>
        <_>
          24 26 7 3 3.</_></rects>
      <tilted>1</tilted></_>
    <_>
      <rects>
        <_>
          28 7 9 33 -1.</_>
        <_>
          31 7 3 33 3.</_></rects>
      <tilted>0</tilted></_>
    <_>
      <rects>
        <_>
          28 14 16 1 -1.</_>
        <_>
          28 14 8 1 2.</_></rects>
      <tilted>1</tilted></_>
    <_>
      <rects>
        <_>
          29 23 18 13 -1.</_>
        <_>
          35 23 6 13 3.</_></rects>
      <tilted>0</tilted></_>
    <_>
      <rects>
        <_>
          30 11 9 18 -1.</_>
        <_>
          33 11 3 18 3.</_></rects>
      <tilted>0</tilted></_>
    <_>
      <rects>
        <_>
          31 19 6 2 -1.</_>
        <_>
          31 19 3 1 2.</_>
        <_>
          34 20 3 1 2.</_></rects>
      <tilted>0</tilted></_>
    <_>
      <rects>
        <_>
          32 32 3 1 -1.</_>
        <_>
          33 32 1 1 3.</_></rects>
      <tilted>0</tilted></_>
    <_>
      <rects>
        <_>
          33 10 9 14 -1.</_>
        <_>
          36 10 3 14 3.</_></rects>
      <tilted>0</tilted></_>
    <_>
      <rects>
        <_>
          33 17 16 9 -1.</_>
        <_>
          37 17 8 9 2.</_></rects>
      <tilted>0</tilted></_>
    <_>
      <rects>
        <_>
          33 17 24 10 -1.</_>
        <_>
          33 17 12 5 2.</_>
        <_>
          45 22 12 5 2.</_></rects>
      <tilted>0</tilted></_>
    <_>
      <rects>
        <_>
          33 22 12 6 -1.</_>
        <_>
          37 24 4 2 9.</_></rects>
      <tilted>0</tilted></_>
    <_>
      <rects>
        <_>
          33 25 3 4 -1.</_>
        <_>
          33 27 3 2 2.</_></rects>
      <tilted>0</tilted></_>
    <_>
      <rects>
        <_>
          34 4 12 7 -1.</_>
        <_>
          38 4 4 7 3.</_></rects>
      <tilted>0</tilted></_>
    <_>
      <rects>
        <_>
          34 13 6 9 -1.</_>
        <_>
          36 13 2 9 3.</_></rects>
      <tilted>0</tilted></_>
    <_>
      <rects>
        <_>
          34 14 15 16 -1.</_>
        <_>
          39 14 5 16 3.</_></rects>
      <tilted>0</tilted></_>
    <_>
      <rects>
        <_>
          34 20 8 2 -1.</_>
        <_>
          36 20 4 2 2.</_></rects>
      <tilted>0</tilted></_>
    <_>
      <rects>
        <_>
          34 22 12 6 -1.</_>
        <_>
          38 22 4 6 3.</_></rects>
      <tilted>0</tilted></_>
    <_>
      <rects>
        <_>
          34 23 24 14 -1.</_>
        <_>
          42 23 8 14 3.</_></rects>
      <tilted>0</tilted></_>
    <_>
      <rects>
        <_>
          35 1 2 16 -1.</_>
        <_>
          35 9 2 8 2.</_></rects>
      <tilted>0</tilted></_>
    <_>
      <rects>
        <_>
          35 7 11 12 -1.</_>
        <_>
          35 13 11 6 2.</_></rects>
      <tilted>0</tilted></_>
    <_>
      <rects>
        <_>
          35 15 12 4 -1.</_>
        <_>
          39 19 4 4 3.</_></rects>
      <tilted>1</tilted></_>
    <_>
      <rects>
        <_>
          35 17 1 8 -1.</_>
        <_>
          33 19 1 4 2.</_></rects>
      <tilted>1</tilted></_>
    <_>
      <rects>
        <_>
          35 23 5 2 -1.</_>
        <_>
          35 24 5 1 2.</_></rects>
      <tilted>0</tilted></_>
    <_>
      <rects>
        <_>
          36 3 24 8 -1.</_>
        <_>
          44 11 8 8 3.</_></rects>
      <tilted>1</tilted></_>
    <_>
      <rects>
        <_>
          36 4 32 4 -1.</_>
        <_>
          44 12 16 4 2.</_></rects>
      <tilted>1</tilted></_>
    <_>
      <rects>
        <_>
          36 5 9 27 -1.</_>
        <_>
          39 14 3 9 9.</_></rects>
      <tilted>0</tilted></_>
    <_>
      <rects>
        <_>
          36 22 3 16 -1.</_>
        <_>
          36 26 3 8 2.</_></rects>
      <tilted>0</tilted></_>
    <_>
      <rects>
        <_>
          36 25 8 6 -1.</_>
        <_>
          36 28 8 3 2.</_></rects>
      <tilted>0</tilted></_>
    <_>
      <rects>
        <_>
          37 1 18 10 -1.</_>
        <_>
          37 1 9 5 2.</_>
        <_>
          46 6 9 5 2.</_></rects>
      <tilted>0</tilted></_>
    <_>
      <rects>
        <_>
          37 12 12 14 -1.</_>
        <_>
          41 12 4 14 3.</_></rects>
      <tilted>0</tilted></_>
    <_>
      <rects>
        <_>
          37 22 4 3 -1.</_>
        <_>
          37 23 4 1 3.</_></rects>
      <tilted>0</tilted></_>
    <_>
      <rects>
        <_>
          38 12 12 3 -1.</_>
        <_>
          42 12 4 3 3.</_></rects>
      <tilted>0</tilted></_>
    <_>
      <rects>
        <_>
          38 13 6 6 -1.</_>
        <_>
          40 15 2 6 3.</_></rects>
      <tilted>1</tilted></_>
    <_>
      <rects>
        <_>
          38 17 4 12 -1.</_>
        <_>
          38 20 4 6 2.</_></rects>
      <tilted>0</tilted></_>
    <_>
      <rects>
        <_>
          38 19 3 2 -1.</_>
        <_>
          39 19 1 2 3.</_></rects>
      <tilted>0</tilted></_>
    <_>
      <rects>
        <_>
          38 21 2 2 -1.</_>
        <_>
          38 21 1 1 2.</_>
        <_>
          39 22 1 1 2.</_></rects>
      <tilted>0</tilted></_>
    <_>
      <rects>
        <_>
          38 22 4 10 -1.</_>
        <_>
          39 22 2 10 2.</_></rects>
      <tilted>0</tilted></_>
    <_>
      <rects>
        <_>
          38 33 3 4 -1.</_>
        <_>
          38 35 3 2 2.</_></rects>
      <tilted>0</tilted></_>
    <_>
      <rects>
        <_>
          39 10 8 4 -1.</_>
        <_>
          41 12 4 4 2.</_></rects>
      <tilted>1</tilted></_>
    <_>
      <rects>
        <_>
          39 22 1 4 -1.</_>
        <_>
          39 22 1 2 2.</_></rects>
      <tilted>1</tilted></_>
    <_>
      <rects>
        <_>
          39 23 2 2 -1.</_>
        <_>
          39 24 2 1 2.</_></rects>
      <tilted>0</tilted></_>
    <_>
      <rects>
        <_>
          39 23 2 4 -1.</_>
        <_>
          39 25 2 2 2.</_></rects>
      <tilted>0</tilted></_>
    <_>
      <rects>
        <_>
          39 24 3 4 -1.</_>
        <_>
          39 26 3 2 2.</_></rects>
      <tilted>0</tilted></_>
    <_>
      <rects>
        <_>
          40 5 6 28 -1.</_>
        <_>
          42 5 2 28 3.</_></rects>
      <tilted>0</tilted></_>
    <_>
      <rects>
        <_>
          40 8 4 12 -1.</_>
        <_>
          40 14 4 6 2.</_></rects>
      <tilted>0</tilted></_>
    <_>
      <rects>
        <_>
          40 9 9 4 -1.</_>
        <_>
          43 12 3 4 3.</_></rects>
      <tilted>1</tilted></_>
    <_>
      <rects>
        <_>
          40 9 7 12 -1.</_>
        <_>
          40 13 7 4 3.</_></rects>
      <tilted>0</tilted></_>
    <_>
      <rects>
        <_>
          40 10 5 12 -1.</_>
        <_>
          40 14 5 4 3.</_></rects>
      <tilted>0</tilted></_>
    <_>
      <rects>
        <_>
          40 11 10 10 -1.</_>
        <_>
          40 11 5 5 2.</_>
        <_>
          45 16 5 5 2.</_></rects>
      <tilted>0</tilted></_>
    <_>
      <rects>
        <_>
          40 12 16 7 -1.</_>
        <_>
          48 12 8 7 2.</_></rects>
      <tilted>0</tilted></_>
    <_>
      <rects>
        <_>
          40 14 12 2 -1.</_>
        <_>
          43 17 6 2 2.</_></rects>
      <tilted>1</tilted></_>
    <_>
      <rects>
        <_>
          40 17 4 6 -1.</_>
        <_>
          40 19 4 2 3.</_></rects>
      <tilted>0</tilted></_>
    <_>
      <rects>
        <_>
          40 20 2 2 -1.</_>
        <_>
          40 21 2 1 2.</_></rects>
      <tilted>0</tilted></_>
    <_>
      <rects>
        <_>
          40 21 4 5 -1.</_>
        <_>
          42 21 2 5 2.</_></rects>
      <tilted>0</tilted></_>
    <_>
      <rects>
        <_>
          40 24 2 1 -1.</_>
        <_>
          40 24 1 1 2.</_></rects>
      <tilted>1</tilted></_>
    <_>
      <rects>
        <_>
          41 3 10 19 -1.</_>
        <_>
          41 3 5 19 2.</_></rects>
      <tilted>1</tilted></_>
    <_>
      <rects>
        <_>
          41 9 6 9 -1.</_>
        <_>
          43 11 2 9 3.</_></rects>
      <tilted>1</tilted></_>
    <_>
      <rects>
        <_>
          41 14 1 8 -1.</_>
        <_>
          39 16 1 4 2.</_></rects>
      <tilted>1</tilted></_>
    <_>
      <rects>
        <_>
          41 14 4 8 -1.</_>
        <_>
          41 18 4 4 2.</_></rects>
      <tilted>0</tilted></_>
    <_>
      <rects>
        <_>
          41 20 3 1 -1.</_>
        <_>
          42 21 1 1 3.</_></rects>
      <tilted>1</tilted></_>
    <_>
      <rects>
        <_>
          42 3 3 15 -1.</_>
        <_>
          42 8 3 5 3.</_></rects>
      <tilted>0</tilted></_>
    <_>
      <rects>
        <_>
          42 19 1 3 -1.</_>
        <_>
          41 20 1 1 3.</_></rects>
      <tilted>1</tilted></_>
    <_>
      <rects>
        <_>
          42 22 1 4 -1.</_>
        <_>
          42 24 1 2 2.</_></rects>
      <tilted>0</tilted></_>
    <_>
      <rects>
        <_>
          43 4 6 20 -1.</_>
        <_>
          43 4 3 10 2.</_>
        <_>
          46 14 3 10 2.</_></rects>
      <tilted>0</tilted></_>
    <_>
      <rects>
        <_>
          43 15 14 6 -1.</_>
        <_>
          43 18 14 3 2.</_></rects>
      <tilted>0</tilted></_>
    <_>
      <rects>
        <_>
          43 21 1 2 -1.</_>
        <_>
          43 22 1 1 2.</_></rects>
      <tilted>0</tilted></_>
    <_>
      <rects>
        <_>
          44 13 3 16 -1.</_>
        <_>
          45 13 1 16 3.</_></rects>
      <tilted>0</tilted></_>
    <_>
      <rects>
        <_>
          44 14 2 16 -1.</_>
        <_>
          45 14 1 16 2.</_></rects>
      <tilted>0</tilted></_>
    <_>
      <rects>
        <_>
          45 23 2 2 -1.</_>
        <_>
          45 23 2 1 2.</_></rects>
      <tilted>1</tilted></_>
    <_>
      <rects>
        <_>
          46 9 8 12 -1.</_>
        <_>
          48 11 4 12 2.</_></rects>
      <tilted>1</tilted></_>
    <_>
      <rects>
        <_>
          46 10 8 13 -1.</_>
        <_>
          48 12 4 13 2.</_></rects>
      <tilted>1</tilted></_>
    <_>
      <rects>
        <_>
          47 10 3 21 -1.</_>
        <_>
          40 17 3 7 3.</_></rects>
      <tilted>1</tilted></_>
    <_>
      <rects>
        <_>
          47 26 14 12 -1.</_>
        <_>
          54 26 7 12 2.</_></rects>
      <tilted>0</tilted></_>
    <_>
      <rects>
        <_>
          47 27 8 4 -1.</_>
        <_>
          49 27 4 4 2.</_></rects>
      <tilted>0</tilted></_>
    <_>
      <rects>
        <_>
          48 16 1 9 -1.</_>
        <_>
          45 19 1 3 3.</_></rects>
      <tilted>1</tilted></_>
    <_>
      <rects>
        <_>
          48 19 15 12 -1.</_>
        <_>
          53 19 5 12 3.</_></rects>
      <tilted>0</tilted></_>
    <_>
      <rects>
        <_>
          49 15 24 7 -1.</_>
        <_>
          55 15 12 7 2.</_></rects>
      <tilted>0</tilted></_>
    <_>
      <rects>
        <_>
          50 11 1 24 -1.</_>
        <_>
          44 17 1 12 2.</_></rects>
      <tilted>1</tilted></_>
    <_>
      <rects>
        <_>
          50 17 2 21 -1.</_>
        <_>
          43 24 2 7 3.</_></rects>
      <tilted>1</tilted></_>
    <_>
      <rects>
        <_>
          50 20 24 10 -1.</_>
        <_>
          62 20 12 10 2.</_></rects>
      <tilted>0</tilted></_>
    <_>
      <rects>
        <_>
          53 1 21 10 -1.</_>
        <_>
          60 8 7 10 3.</_></rects>
      <tilted>1</tilted></_>
    <_>
      <rects>
        <_>
          53 13 1 4 -1.</_>
        <_>
          53 13 1 2 2.</_></rects>
      <tilted>1</tilted></_>
    <_>
      <rects>
        <_>
          53 24 18 6 -1.</_>
        <_>
          62 24 9 6 2.</_></rects>
      <tilted>0</tilted></_>
    <_>
      <rects>
        <_>
          55 6 6 12 -1.</_>
        <_>
          51 10 6 4 3.</_></rects>
      <tilted>1</tilted></_>
    <_>
      <rects>
        <_>
          56 8 22 6 -1.</_>
        <_>
          56 8 11 3 2.</_>
        <_>
          67 11 11 3 2.</_></rects>
      <tilted>0</tilted></_>
    <_>
      <rects>
        <_>
          64 27 3 6 -1.</_>
        <_>
          65 27 1 6 3.</_></rects>
      <tilted>0</tilted></_>
    <_>
      <rects>
        <_>
          65 23 6 5 -1.</_>
        <_>
          65 23 3 5 2.</_></rects>
      <tilted>1</tilted></_>
    <_>
      <rects>
        <_>
          68 7 2 12 -1.</_>
        <_>
          68 7 1 6 2.</_>
        <_>
          69 13 1 6 2.</_></rects>
      <tilted>0</tilted></_>
    <_>
      <rects>
        <_>
          70 2 3 16 -1.</_>
        <_>
          70 2 3 8 2.</_></rects>
      <tilted>1</tilted></_></features></cascade>
</opencv_storage>
