<?xml version="1.0"?>
<opencv_storage>
<stage9>
  <maxWeakCount>6</maxWeakCount>
  <stageThreshold>-1.2381273508071899e+00</stageThreshold>
  <weakClassifiers>
    <_>
      <internalNodes>
        0 -1 3690594 -1.4290578663349152e-02</internalNodes>
      <leafValues>
        7.4193549156188965e-01 -6.5785813331604004e-01</leafValues></_>
    <_>
      <internalNodes>
        0 -1 5519609 -3.7168716080486774e-03</internalNodes>
      <leafValues>
        -1. 1.2487974017858505e-02</leafValues></_>
    <_>
      <internalNodes>
        0 -1 5612320 2.4141250178217888e-03</internalNodes>
      <leafValues>
        -9.0088230371475220e-01 1.1758102476596832e-01</leafValues></_>
    <_>
      <internalNodes>
        0 -1 986530 1.5377197414636612e-02</internalNodes>
      <leafValues>
        -3.1340229511260986e-01 4.2325538396835327e-01</leafValues></_>
    <_>
      <internalNodes>
        0 -1 5049236 -1.5557976439595222e-05</internalNodes>
      <leafValues>
        2.5185987353324890e-01 -6.8549287319183350e-01</leafValues></_>
    <_>
      <internalNodes>
        0 -1 2752845 -8.3655340858967975e-06</internalNodes>
      <leafValues>
        3.0555483698844910e-01 -4.4810068607330322e-01</leafValues></_></weakClassifiers></stage9>
</opencv_storage>
