<?xml version="1.0"?>
<opencv_storage>
<stage2>
  <maxWeakCount>5</maxWeakCount>
  <stageThreshold>-6.7188191413879395e-01</stageThreshold>
  <weakClassifiers>
    <_>
      <internalNodes>
        0 -1 4232551 4.1320100426673889e-03</internalNodes>
      <leafValues>
        -6.0946744680404663e-01 6.6451615095138550e-01</leafValues></_>
    <_>
      <internalNodes>
        0 -1 5961311 -7.3598450399003923e-05</internalNodes>
      <leafValues>
        6.5795028209686279e-01 -4.6688154339790344e-01</leafValues></_>
    <_>
      <internalNodes>
        0 -1 7472211 -4.3257428333163261e-03</internalNodes>
      <leafValues>
        5.5444246530532837e-01 -5.2680957317352295e-01</leafValues></_>
    <_>
      <internalNodes>
        0 -1 5474551 -1.6695774684194475e-04</internalNodes>
      <leafValues>
        4.9679422378540039e-01 -7.4042594432830811e-01</leafValues></_>
    <_>
      <internalNodes>
        0 -1 962681 8.8683746071183123e-06</internalNodes>
      <leafValues>
        -5.3438127040863037e-01 6.8319207429885864e-01</leafValues></_></weakClassifiers></stage2>
</opencv_storage>
