<?xml version="1.0"?>
<opencv_storage>
<stage10>
  <maxWeakCount>7</maxWeakCount>
  <stageThreshold>-1.2811411619186401e+00</stageThreshold>
  <weakClassifiers>
    <_>
      <internalNodes>
        0 -1 5345118 1.0074350051581860e-02</internalNodes>
      <leafValues>
        -6.5745854377746582e-01 1.</leafValues></_>
    <_>
      <internalNodes>
        0 -1 3770187 -4.5459833927452564e-03</internalNodes>
      <leafValues>
        3.3227318525314331e-01 -4.3191179633140564e-01</leafValues></_>
    <_>
      <internalNodes>
        0 -1 5370919 -4.0829976205714047e-04</internalNodes>
      <leafValues>
        -8.9478647708892822e-01 1.6499722003936768e-01</leafValues></_>
    <_>
      <internalNodes>
        0 -1 5572553 -7.0491073529410642e-06</internalNodes>
      <leafValues>
        3.5663354396820068e-01 -4.3128338456153870e-01</leafValues></_>
    <_>
      <internalNodes>
        0 -1 3304953 1.2975525110960007e-02</internalNodes>
      <leafValues>
        -1.8121553957462311e-01 8.3663755655288696e-01</leafValues></_>
    <_>
      <internalNodes>
        0 -1 7434962 -7.5883464887738228e-04</internalNodes>
      <leafValues>
        3.5084831714630127e-01 -4.6042722463607788e-01</leafValues></_>
    <_>
      <internalNodes>
        0 -1 4722075 -4.2135692638112232e-05</internalNodes>
      <leafValues>
        -7.3690134286880493e-01 1.7674931883811951e-01</leafValues></_></weakClassifiers></stage10>
</opencv_storage>
