<?xml version="1.0"?>
<opencv_storage>
<stage8>
  <maxWeakCount>7</maxWeakCount>
  <stageThreshold>-1.1577262878417969e+00</stageThreshold>
  <weakClassifiers>
    <_>
      <internalNodes>
        0 -1 5638251 1.2207716703414917e-02</internalNodes>
      <leafValues>
        -6.6111111640930176e-01 8.6666667461395264e-01</leafValues></_>
    <_>
      <internalNodes>
        0 -1 4934656 -1.5417174436151981e-03</internalNodes>
      <leafValues>
        -9.3363004922866821e-01 7.3439061641693115e-02</leafValues></_>
    <_>
      <internalNodes>
        0 -1 3538057 -5.1535029342630878e-05</internalNodes>
      <leafValues>
        2.6905956864356995e-01 -5.8299535512924194e-01</leafValues></_>
    <_>
      <internalNodes>
        0 -1 4910937 1.0289846977684647e-04</internalNodes>
      <leafValues>
        1.9093103706836700e-01 -8.5563963651657104e-01</leafValues></_>
    <_>
      <internalNodes>
        0 -1 5774629 -8.8060958660207689e-05</internalNodes>
      <leafValues>
        3.0418935418128967e-01 -5.1486194133758545e-01</leafValues></_>
    <_>
      <internalNodes>
        0 -1 4780119 3.3853712375275791e-04</internalNodes>
      <leafValues>
        3.5098043084144592e-01 -4.7135561704635620e-01</leafValues></_>
    <_>
      <internalNodes>
        0 -1 5341822 9.1736845206469297e-04</internalNodes>
      <leafValues>
        1.8369214236736298e-01 -8.4881204366683960e-01</leafValues></_></weakClassifiers></stage8>
</opencv_storage>
