<?xml version="1.0"?>
<opencv_storage>
<stage9>
  <maxWeakCount>5</maxWeakCount>
  <stageThreshold>-2.4318228662014008e-01</stageThreshold>
  <weakClassifiers>
    <_>
      <internalNodes>
        0 -1 5811856 -6.7513690737541765e-05</internalNodes>
      <leafValues>
        2.0463320612907410e-01 -8.1538462638854980e-01</leafValues></_>
    <_>
      <internalNodes>
        0 -1 1024724 6.9570681080222130e-03</internalNodes>
      <leafValues>
        -2.7127864956855774e-01 7.4618959426879883e-01</leafValues></_>
    <_>
      <internalNodes>
        0 -1 5045249 -2.5726424064487219e-03</internalNodes>
      <leafValues>
        3.0955344438552856e-01 -6.9664466381072998e-01</leafValues></_>
    <_>
      <internalNodes>
        0 -1 5678876 3.7430392694659531e-05</internalNodes>
      <leafValues>
        -7.0130038261413574e-01 2.6574450731277466e-01</leafValues></_>
    <_>
      <internalNodes>
        0 -1 5341972 -3.0743936076760292e-04</internalNodes>
      <leafValues>
        2.6818302273750305e-01 -7.4154460430145264e-01</leafValues></_></weakClassifiers></stage9>
</opencv_storage>
