<?xml version="1.0"?>
<opencv_storage>
<stage18>
  <maxWeakCount>6</maxWeakCount>
  <stageThreshold>-1.4017570018768311e+00</stageThreshold>
  <weakClassifiers>
    <_>
      <internalNodes>
        0 -1 6900139 3.9086132310330868e-03</internalNodes>
      <leafValues>
        -7.1919769048690796e-01 1.</leafValues></_>
    <_>
      <internalNodes>
        0 -1 4160948 2.0257409196346998e-03</internalNodes>
      <leafValues>
        3.0945616960525513e-01 -7.0857840776443481e-01</leafValues></_>
    <_>
      <internalNodes>
        0 -1 5812502 1.4608257333748043e-04</internalNodes>
      <leafValues>
        -6.1565154790878296e-01 4.7489526867866516e-01</leafValues></_>
    <_>
      <internalNodes>
        0 -1 3049319 -5.0624730647541583e-05</internalNodes>
      <leafValues>
        -5.4125535488128662e-01 5.1197648048400879e-01</leafValues></_>
    <_>
      <internalNodes>
        0 -1 7392136 -2.0376446627778932e-05</internalNodes>
      <leafValues>
        -5.5603748559951782e-01 6.6550880670547485e-01</leafValues></_>
    <_>
      <internalNodes>
        0 -1 7537257 8.9676730567589402e-05</internalNodes>
      <leafValues>
        -3.6961787939071655e-01 8.7148529291152954e-01</leafValues></_></weakClassifiers></stage18>
</opencv_storage>
