<?xml version="1.0"?>
<opencv_storage>
<stage12>
  <maxWeakCount>5</maxWeakCount>
  <stageThreshold>-8.4608387947082520e-01</stageThreshold>
  <weakClassifiers>
    <_>
      <internalNodes>
        0 -1 6234247 -1.9278801119071431e-05</internalNodes>
      <leafValues>
        3.5106381773948669e-01 -4.8529410362243652e-01</leafValues></_>
    <_>
      <internalNodes>
        0 -1 3704169 -1.5352704795077443e-03</internalNodes>
      <leafValues>
        5.0800335407257080e-01 -3.8594251871109009e-01</leafValues></_>
    <_>
      <internalNodes>
        0 -1 6013576 1.0114134056493640e-03</internalNodes>
      <leafValues>
        2.5821661949157715e-01 -7.7130943536758423e-01</leafValues></_>
    <_>
      <internalNodes>
        0 -1 5687142 -1.4865414705127478e-03</internalNodes>
      <leafValues>
        -7.3910397291183472e-01 2.6900914311408997e-01</leafValues></_>
    <_>
      <internalNodes>
        0 -1 4066679 -4.5881824917159975e-04</internalNodes>
      <leafValues>
        3.4852594137191772e-01 -5.0207298994064331e-01</leafValues></_></weakClassifiers></stage12>
</opencv_storage>
