<?xml version="1.0"?>
<opencv_storage>
<stage6>
  <maxWeakCount>5</maxWeakCount>
  <stageThreshold>-1.0661960840225220e+00</stageThreshold>
  <weakClassifiers>
    <_>
      <internalNodes>
        0 -1 5161823 4.2777778580784798e-03</internalNodes>
      <leafValues>
        2.7572017908096313e-01 -8.2716047763824463e-01</leafValues></_>
    <_>
      <internalNodes>
        0 -1 4232546 9.1946627944707870e-03</internalNodes>
      <leafValues>
        -4.1781121492385864e-01 5.0027537345886230e-01</leafValues></_>
    <_>
      <internalNodes>
        0 -1 4876276 -2.4875113740563393e-03</internalNodes>
      <leafValues>
        3.7379899621009827e-01 -6.1849033832550049e-01</leafValues></_>
    <_>
      <internalNodes>
        0 -1 3231338 -1.4851568266749382e-04</internalNodes>
      <leafValues>
        3.8060212135314941e-01 -5.5547511577606201e-01</leafValues></_>
    <_>
      <internalNodes>
        0 -1 5464129 -7.7461154432967305e-04</internalNodes>
      <leafValues>
        -7.4431163072586060e-01 3.6045175790786743e-01</leafValues></_></weakClassifiers></stage6>
</opencv_storage>
