<?xml version="1.0"?>
<opencv_storage>
<stage17>
  <maxWeakCount>8</maxWeakCount>
  <stageThreshold>-6.9304579496383667e-01</stageThreshold>
  <weakClassifiers>
    <_>
      <internalNodes>
        0 -1 4584051 -1.2336596846580505e-02</internalNodes>
      <leafValues>
        7.4647885560989380e-01 -2.0948617160320282e-01</leafValues></_>
    <_>
      <internalNodes>
        0 -1 4820642 -2.2177371647558175e-05</internalNodes>
      <leafValues>
        3.2607778906822205e-01 -4.6350669860839844e-01</leafValues></_>
    <_>
      <internalNodes>
        0 -1 7233902 3.7373872473835945e-03</internalNodes>
      <leafValues>
        -2.7080923318862915e-01 5.9319025278091431e-01</leafValues></_>
    <_>
      <internalNodes>
        0 -1 171473 4.9524344503879547e-02</internalNodes>
      <leafValues>
        -2.3275429010391235e-01 7.8660148382186890e-01</leafValues></_>
    <_>
      <internalNodes>
        0 -1 6552867 -2.2298733238130808e-03</internalNodes>
      <leafValues>
        6.2112861871719360e-01 -2.9931852221488953e-01</leafValues></_>
    <_>
      <internalNodes>
        0 -1 5100973 -9.3198346439749002e-04</internalNodes>
      <leafValues>
        2.9886144399642944e-01 -6.9149678945541382e-01</leafValues></_>
    <_>
      <internalNodes>
        0 -1 5840482 1.9616802455857396e-04</internalNodes>
      <leafValues>
        1.9780136644840240e-01 -8.3829522132873535e-01</leafValues></_>
    <_>
      <internalNodes>
        0 -1 3951174 3.1186966225504875e-05</internalNodes>
      <leafValues>
        -4.3350717425346375e-01 4.2876037955284119e-01</leafValues></_></weakClassifiers></stage17>
</opencv_storage>
