<?xml version="1.0"?>
<opencv_storage>
<stage14>
  <maxWeakCount>8</maxWeakCount>
  <stageThreshold>-1.4085589647293091e+00</stageThreshold>
  <weakClassifiers>
    <_>
      <internalNodes>
        0 -1 4961213 3.8819087203592062e-03</internalNodes>
      <leafValues>
        -6.8604654073715210e-01 3.5483869910240173e-01</leafValues></_>
    <_>
      <internalNodes>
        0 -1 5438411 -4.8331799916923046e-04</internalNodes>
      <leafValues>
        -5.4718452692031860e-01 2.6967996358871460e-01</leafValues></_>
    <_>
      <internalNodes>
        0 -1 5549893 -1.6517487820237875e-03</internalNodes>
      <leafValues>
        -6.9369757175445557e-01 1.7504100501537323e-01</leafValues></_>
    <_>
      <internalNodes>
        0 -1 6660634 -2.0074490457773209e-02</internalNodes>
      <leafValues>
        4.0178656578063965e-01 -3.5205119848251343e-01</leafValues></_>
    <_>
      <internalNodes>
        0 -1 6823741 -6.2180641107261181e-03</internalNodes>
      <leafValues>
        5.9795951843261719e-01 -2.4872331321239471e-01</leafValues></_>
    <_>
      <internalNodes>
        0 -1 1961127 -1.0444168001413345e-02</internalNodes>
      <leafValues>
        6.5643090009689331e-01 -2.1975690126419067e-01</leafValues></_>
    <_>
      <internalNodes>
        0 -1 5478817 -1.5671513392589986e-04</internalNodes>
      <leafValues>
        2.5986129045486450e-01 -5.9579581022262573e-01</leafValues></_>
    <_>
      <internalNodes>
        0 -1 4806771 -1.3309976202435791e-04</internalNodes>
      <leafValues>
        2.4909384548664093e-01 -6.1733508110046387e-01</leafValues></_></weakClassifiers></stage14>
</opencv_storage>
