<?xml version="1.0"?>
<opencv_storage>
<stage18>
  <maxWeakCount>8</maxWeakCount>
  <stageThreshold>-7.8697335720062256e-01</stageThreshold>
  <weakClassifiers>
    <_>
      <internalNodes>
        0 -1 5577381 -6.6498247906565666e-03</internalNodes>
      <leafValues>
        4.9253731966018677e-01 -3.4736841917037964e-01</leafValues></_>
    <_>
      <internalNodes>
        0 -1 6306709 -1.6880480688996613e-04</internalNodes>
      <leafValues>
        4.3095329403877258e-01 -4.0012118220329285e-01</leafValues></_>
    <_>
      <internalNodes>
        0 -1 1933185 -2.0944843068718910e-02</internalNodes>
      <leafValues>
        8.0156904458999634e-01 -2.1886943280696869e-01</leafValues></_>
    <_>
      <internalNodes>
        0 -1 5748601 -7.3265987448394299e-03</internalNodes>
      <leafValues>
        8.8754498958587646e-01 -1.7008659243583679e-01</leafValues></_>
    <_>
      <internalNodes>
        0 -1 4812584 -6.5714505035430193e-04</internalNodes>
      <leafValues>
        -8.1930947303771973e-01 2.7983632683753967e-01</leafValues></_>
    <_>
      <internalNodes>
        0 -1 3029386 2.8495254809968174e-04</internalNodes>
      <leafValues>
        -3.2941079139709473e-01 5.8637046813964844e-01</leafValues></_>
    <_>
      <internalNodes>
        0 -1 4448503 -1.1365744285285473e-03</internalNodes>
      <leafValues>
        3.5550224781036377e-01 -5.3442704677581787e-01</leafValues></_>
    <_>
      <internalNodes>
        0 -1 7245925 -2.8633377514779568e-03</internalNodes>
      <leafValues>
        -7.9636126756668091e-01 2.8992325067520142e-01</leafValues></_></weakClassifiers></stage18>
</opencv_storage>
