<?xml version="1.0"?>
<opencv_storage>
<stage13>
  <maxWeakCount>7</maxWeakCount>
  <stageThreshold>-1.1643357276916504e+00</stageThreshold>
  <weakClassifiers>
    <_>
      <internalNodes>
        0 -1 6314966 -5.7797727640718222e-04</internalNodes>
      <leafValues>
        5.8490568399429321e-01 -2.8440368175506592e-01</leafValues></_>
    <_>
      <internalNodes>
        0 -1 5733348 3.3101835288107395e-04</internalNodes>
      <leafValues>
        3.2023295760154724e-01 -6.3460433483123779e-01</leafValues></_>
    <_>
      <internalNodes>
        0 -1 3414339 -2.5435197167098522e-03</internalNodes>
      <leafValues>
        4.8063051700592041e-01 -3.8850185275077820e-01</leafValues></_>
    <_>
      <internalNodes>
        0 -1 4830893 -3.6787326098419726e-04</internalNodes>
      <leafValues>
        4.3889296054840088e-01 -4.7158062458038330e-01</leafValues></_>
    <_>
      <internalNodes>
        0 -1 5366158 -1.1933773930650204e-04</internalNodes>
      <leafValues>
        -7.1504312753677368e-01 2.7401080727577209e-01</leafValues></_>
    <_>
      <internalNodes>
        0 -1 5763248 2.9839086346328259e-03</internalNodes>
      <leafValues>
        -2.2661265730857849e-01 8.7756079435348511e-01</leafValues></_>
    <_>
      <internalNodes>
        0 -1 5772559 -7.0498272179975174e-06</internalNodes>
      <leafValues>
        5.0807815790176392e-01 -3.8748067617416382e-01</leafValues></_></weakClassifiers></stage13>
</opencv_storage>
