<?xml version="1.0"?>
<opencv_storage>
<stage8>
  <maxWeakCount>8</maxWeakCount>
  <stageThreshold>-6.3922667503356934e-01</stageThreshold>
  <weakClassifiers>
    <_>
      <internalNodes>
        0 -1 5476772 -5.6988410506164655e-06</internalNodes>
      <leafValues>
        2.5619834661483765e-01 -7.5609755516052246e-01</leafValues></_>
    <_>
      <internalNodes>
        0 -1 5334895 -2.0029429346323013e-02</internalNodes>
      <leafValues>
        9.0918266773223877e-01 -2.4497345089912415e-01</leafValues></_>
    <_>
      <internalNodes>
        0 -1 3289720 -9.7334547899663448e-04</internalNodes>
      <leafValues>
        4.5913079380989075e-01 -4.9653023481369019e-01</leafValues></_>
    <_>
      <internalNodes>
        0 -1 5364158 2.3445251281373203e-04</internalNodes>
      <leafValues>
        2.5149857997894287e-01 -8.2705688476562500e-01</leafValues></_>
    <_>
      <internalNodes>
        0 -1 6559043 -1.7848309653345495e-05</internalNodes>
      <leafValues>
        3.6536848545074463e-01 -5.6429195404052734e-01</leafValues></_>
    <_>
      <internalNodes>
        0 -1 5159097 -2.3868121206760406e-03</internalNodes>
      <leafValues>
        4.9109145998954773e-01 -4.5859178900718689e-01</leafValues></_>
    <_>
      <internalNodes>
        0 -1 6493128 3.4461372706573457e-05</internalNodes>
      <leafValues>
        -5.9622073173522949e-01 3.4334474802017212e-01</leafValues></_>
    <_>
      <internalNodes>
        0 -1 5869366 7.8035955084487796e-05</internalNodes>
      <leafValues>
        4.2301410436630249e-01 -5.2430677413940430e-01</leafValues></_></weakClassifiers></stage8>
</opencv_storage>
