<?xml version="1.0"?>
<opencv_storage>
<stage7>
  <maxWeakCount>5</maxWeakCount>
  <stageThreshold>-9.4647240638732910e-01</stageThreshold>
  <weakClassifiers>
    <_>
      <internalNodes>
        0 -1 5257691 2.5139611680060625e-03</internalNodes>
      <leafValues>
        2.2605364024639130e-01 -9.3650794029235840e-01</leafValues></_>
    <_>
      <internalNodes>
        0 -1 2292258 -3.7248646840453148e-03</internalNodes>
      <leafValues>
        4.3203914165496826e-01 -4.5995318889617920e-01</leafValues></_>
    <_>
      <internalNodes>
        0 -1 5363537 1.0820457828231156e-04</internalNodes>
      <leafValues>
        2.7631616592407227e-01 -7.9574686288833618e-01</leafValues></_>
    <_>
      <internalNodes>
        0 -1 4785676 -7.4132257141172886e-03</internalNodes>
      <leafValues>
        2.4647118151187897e-01 -6.8707245588302612e-01</leafValues></_>
    <_>
      <internalNodes>
        0 -1 4069330 -2.1417018026113510e-02</internalNodes>
      <leafValues>
        7.7460736036300659e-01 -3.0181658267974854e-01</leafValues></_></weakClassifiers></stage7>
</opencv_storage>
