<?xml version="1.0"?>
<opencv_storage>
<stage5>
  <maxWeakCount>5</maxWeakCount>
  <stageThreshold>-4.7170108556747437e-01</stageThreshold>
  <weakClassifiers>
    <_>
      <internalNodes>
        0 -1 3229161 -3.5815633833408356e-02</internalNodes>
      <leafValues>
        4.7311827540397644e-01 -6.3768118619918823e-01</leafValues></_>
    <_>
      <internalNodes>
        0 -1 7162398 1.2142607942223549e-02</internalNodes>
      <leafValues>
        -4.2908057570457458e-01 5.8221328258514404e-01</leafValues></_>
    <_>
      <internalNodes>
        0 -1 4910947 2.4336256319656968e-04</internalNodes>
      <leafValues>
        3.3478015661239624e-01 -8.7194997072219849e-01</leafValues></_>
    <_>
      <internalNodes>
        0 -1 5030992 -2.2825147956609726e-02</internalNodes>
      <leafValues>
        7.8381890058517456e-01 -3.5881283879280090e-01</leafValues></_>
    <_>
      <internalNodes>
        0 -1 5338840 -1.2347359210252762e-02</internalNodes>
      <leafValues>
        9.6562021970748901e-01 -2.9626986384391785e-01</leafValues></_></weakClassifiers></stage5>
</opencv_storage>
